<?xml version="1.0" encoding="UTF-8" standalone="yes"?>
<PMML xmlns="http://www.dmg.org/PMML-4_4" xmlns:data="http://jpmml.org/jpmml-model/InlineTable" version="4.4">
	<Header>
		<Application name="JPMML-SkLearn library" version="1.7.8"/>
		<Timestamp>2022-06-26T11:27:09Z</Timestamp>
	</Header>
	<MiningBuildTask>
		<Extension name="repr">PMMLPipeline(steps=[('classifier', XGBClassifier(base_score=0.5, booster='gbtree', callbacks=None,
              colsample_bylevel=1, colsample_bynode=1, colsample_bytree=1,
              early_stopping_rounds=None, enable_categorical=False,
              eval_metric=None, gamma=0, gpu_id=-1, grow_policy='depthwise',
              importance_type=None, interaction_constraints='',
              learning_rate=0.300000012, max_bin=256, max_cat_to_onehot=4,
              max_delta_step=0, max_depth=6, max_leaves=0, min_child_weight=1,
              missing=nan, monotone_constraints='()', n_estimators=100,
              n_jobs=0, num_parallel_tree=1, predictor='auto', random_state=0,
              reg_alpha=0, reg_lambda=1, ...))])</Extension>
	</MiningBuildTask>
	<DataDictionary>
		<DataField name="stroke" optype="categorical" dataType="integer">
			<Value value="0"/>
			<Value value="1"/>
		</DataField>
		<DataField name="gender" optype="continuous" dataType="float"/>
		<DataField name="age" optype="continuous" dataType="float"/>
		<DataField name="hypertension" optype="continuous" dataType="float"/>
		<DataField name="heart_disease" optype="continuous" dataType="float"/>
		<DataField name="ever_married" optype="continuous" dataType="float"/>
		<DataField name="work_type" optype="continuous" dataType="float"/>
		<DataField name="Residence_type" optype="continuous" dataType="float"/>
		<DataField name="avg_glucose_level" optype="continuous" dataType="float"/>
		<DataField name="bmi" optype="continuous" dataType="float"/>
		<DataField name="smoking_status" optype="continuous" dataType="float"/>
	</DataDictionary>
	<MiningModel functionName="classification" algorithmName="XGBoost (GBTree)" x-mathContext="float">
		<MiningSchema>
			<MiningField name="stroke" usageType="target"/>
			<MiningField name="gender"/>
			<MiningField name="age"/>
			<MiningField name="hypertension"/>
			<MiningField name="heart_disease"/>
			<MiningField name="ever_married"/>
			<MiningField name="work_type"/>
			<MiningField name="Residence_type"/>
			<MiningField name="avg_glucose_level"/>
			<MiningField name="bmi"/>
			<MiningField name="smoking_status"/>
		</MiningSchema>
		<Segmentation multipleModelMethod="modelChain" missingPredictionTreatment="returnMissing">
			<Segment id="1">
				<True/>
				<MiningModel functionName="regression" x-mathContext="float">
					<MiningSchema>
						<MiningField name="gender"/>
						<MiningField name="age"/>
						<MiningField name="hypertension"/>
						<MiningField name="heart_disease"/>
						<MiningField name="ever_married"/>
						<MiningField name="work_type"/>
						<MiningField name="Residence_type"/>
						<MiningField name="avg_glucose_level"/>
						<MiningField name="bmi"/>
						<MiningField name="smoking_status"/>
					</MiningSchema>
					<Output>
						<OutputField name="xgbValue" optype="continuous" dataType="float" isFinalResult="false"/>
					</Output>
					<Segmentation multipleModelMethod="sum">
						<Segment id="1">
							<True/>
							<TreeModel functionName="regression" noTrueChildStrategy="returnLastPrediction" x-mathContext="float">
								<MiningSchema>
									<MiningField name="gender"/>
									<MiningField name="age"/>
									<MiningField name="hypertension"/>
									<MiningField name="heart_disease"/>
									<MiningField name="ever_married"/>
									<MiningField name="work_type"/>
									<MiningField name="Residence_type"/>
									<MiningField name="avg_glucose_level"/>
									<MiningField name="bmi"/>
									<MiningField name="smoking_status"/>
								</MiningSchema>
								<Node score="-0.5891566">
									<True/>
									<Node score="-0.506087">
										<SimplePredicate field="age" operator="greaterOrEqual" value="49.039337"/>
										<Node score="0.48486406">
											<SimplePredicate field="age" operator="greaterOrEqual" value="67.00055"/>
											<Node score="-0.2057143">
												<SimplePredicate field="work_type" operator="greaterOrEqual" value="2.5"/>
												<Node score="0.06666667">
													<SimplePredicate field="heart_disease" operator="greaterOrEqual" value="0.5"/>
													<Node score="-0.46363637">
														<SimplePredicate field="avg_glucose_level" operator="greaterOrEqual" value="78.895"/>
													</Node>
													<Node score="-0.20000002">
														<SimplePredicate field="Residence_type" operator="greaterOrEqual" value="0.5"/>
													</Node>
												</Node>
												<Node score="-0.120000005">
													<SimplePredicate field="bmi" operator="greaterOrEqual" value="34.858513"/>
													<Node score="-0.4875">
														<SimplePredicate field="avg_glucose_level" operator="greaterOrEqual" value="73.214355"/>
													</Node>
												</Node>
												<Node score="0.27187502">
													<SimplePredicate field="bmi" operator="greaterOrEqual" value="25.109173"/>
												</Node>
											</Node>
											<Node score="-0.27272728">
												<SimplePredicate field="hypertension" operator="greaterOrEqual" value="0.5"/>
												<Node score="-0.275">
													<SimplePredicate field="Residence_type" operator="greaterOrEqual" value="0.5"/>
													<Node score="0.28695655">
														<SimplePredicate field="avg_glucose_level" operator="greaterOrEqual" value="220.545"/>
													</Node>
												</Node>
												<Node score="0.3585366">
													<SimplePredicate field="avg_glucose_level" operator="greaterOrEqual" value="67.265"/>
												</Node>
											</Node>
											<Node score="-0.20000002">
												<SimplePredicate field="heart_disease" operator="greaterOrEqual" value="0.5"/>
												<Node score="0.37699118">
													<SimplePredicate field="avg_glucose_level" operator="greaterOrEqual" value="126.305"/>
												</Node>
											</Node>
											<Node score="0.14545456">
												<SimplePredicate field="smoking_status" operator="greaterOrEqual" value="2.5"/>
											</Node>
										</Node>
										<Node score="-0.51932776">
											<SimplePredicate field="work_type" operator="greaterOrEqual" value="2.5"/>
											<Node score="0.36">
												<SimplePredicate field="age" operator="greaterOrEqual" value="60.055183"/>
												<Node score="-0.48000002">
													<SimplePredicate field="Residence_type" operator="greaterOrEqual" value="0.5"/>
												</Node>
												<Node score="-0.15">
													<SimplePredicate field="avg_glucose_level" operator="greaterOrEqual" value="65.91973"/>
												</Node>
											</Node>
											<Node score="-0.15">
												<SimplePredicate field="avg_glucose_level" operator="greaterOrEqual" value="227.66"/>
											</Node>
										</Node>
										<Node score="0.12813559">
											<SimplePredicate field="bmi" operator="greaterOrEqual" value="25.314299"/>
											<Node score="0.2803019">
												<SimplePredicate field="avg_glucose_level" operator="greaterOrEqual" value="84.97273"/>
												<Node score="-0.17288136">
													<SimplePredicate field="hypertension" operator="greaterOrEqual" value="0.5"/>
												</Node>
											</Node>
											<Node score="-0.2653846">
												<SimplePredicate field="bmi" operator="greaterOrEqual" value="30.390285"/>
											</Node>
										</Node>
										<Node score="0.47368425">
											<SimplePredicate field="avg_glucose_level" operator="greaterOrEqual" value="211.24902"/>
											<Node score="-0.3">
												<SimplePredicate field="avg_glucose_level" operator="greaterOrEqual" value="220.80237"/>
											</Node>
										</Node>
										<Node score="-0.13636364">
											<SimplePredicate field="age" operator="greaterOrEqual" value="62.029"/>
										</Node>
									</Node>
									<Node score="-0.154717">
										<SimplePredicate field="age" operator="greaterOrEqual" value="38.039516"/>
										<Node score="-0.15">
											<SimplePredicate field="gender" operator="greaterOrEqual" value="0.5"/>
											<Node score="-0.5690987">
												<SimplePredicate field="ever_married" operator="greaterOrEqual" value="0.5"/>
											</Node>
											<Node score="-0.456">
												<SimplePredicate field="work_type" operator="greaterOrEqual" value="1.5"/>
											</Node>
											<Node score="0.34285718">
												<SimplePredicate field="age" operator="greaterOrEqual" value="43.073227"/>
											</Node>
										</Node>
										<Node score="-0.5311476">
											<SimplePredicate field="avg_glucose_level" operator="greaterOrEqual" value="84.823845"/>
											<Node score="0.021428574">
												<SimplePredicate field="bmi" operator="greaterOrEqual" value="29.349522"/>
												<Node score="-0.40677968">
													<SimplePredicate field="bmi" operator="greaterOrEqual" value="31.878315"/>
												</Node>
											</Node>
										</Node>
										<Node score="-0.15">
											<SimplePredicate field="smoking_status" operator="greaterOrEqual" value="2.5"/>
											<Node score="-0.5294118">
												<SimplePredicate field="age" operator="greaterOrEqual" value="39.5"/>
											</Node>
										</Node>
										<Node score="0.21428573">
											<SimplePredicate field="avg_glucose_level" operator="greaterOrEqual" value="81.41463"/>
										</Node>
									</Node>
									<Node score="-0.59381443">
										<SimplePredicate field="avg_glucose_level" operator="greaterOrEqual" value="78.96835"/>
									</Node>
									<Node score="-0.48307696">
										<SimplePredicate field="bmi" operator="greaterOrEqual" value="27.014679"/>
										<Node score="0.19024391">
											<SimplePredicate field="work_type" operator="greaterOrEqual" value="2.5"/>
											<Node score="-0.45000002">
												<SimplePredicate field="age" operator="greaterOrEqual" value="27.731548"/>
											</Node>
										</Node>
										<Node score="0.33333337">
											<SimplePredicate field="avg_glucose_level" operator="greaterOrEqual" value="78.64068"/>
										</Node>
									</Node>
								</Node>
							</TreeModel>
						</Segment>
						<Segment id="2">
							<True/>
							<TreeModel functionName="regression" noTrueChildStrategy="returnLastPrediction" x-mathContext="float">
								<MiningSchema>
									<MiningField name="gender"/>
									<MiningField name="age"/>
									<MiningField name="heart_disease"/>
									<MiningField name="ever_married"/>
									<MiningField name="work_type"/>
									<MiningField name="Residence_type"/>
									<MiningField name="avg_glucose_level"/>
									<MiningField name="bmi"/>
									<MiningField name="smoking_status"/>
								</MiningSchema>
								<Node score="-0.45438814">
									<True/>
									<Node score="0.38056365">
										<SimplePredicate field="age" operator="greaterOrEqual" value="56.002182"/>
										<Node score="0.21441844">
											<SimplePredicate field="work_type" operator="greaterOrEqual" value="2.5"/>
											<Node score="-0.15051088">
												<SimplePredicate field="avg_glucose_level" operator="greaterOrEqual" value="206.355"/>
												<Node score="-0.49988103">
													<SimplePredicate field="smoking_status" operator="greaterOrEqual" value="0.5"/>
												</Node>
											</Node>
											<Node score="0.23839177">
												<SimplePredicate field="Residence_type" operator="greaterOrEqual" value="0.5"/>
												<Node score="0.47460827">
													<SimplePredicate field="avg_glucose_level" operator="greaterOrEqual" value="194.3"/>
													<Node score="-0.28765368">
														<SimplePredicate field="avg_glucose_level" operator="greaterOrEqual" value="200.07"/>
													</Node>
												</Node>
												<Node score="-0.43305004">
													<SimplePredicate field="ever_married" operator="greaterOrEqual" value="0.5"/>
												</Node>
											</Node>
											<Node score="-0.40712273">
												<SimplePredicate field="bmi" operator="greaterOrEqual" value="35.55"/>
												<Node score="-0.12334158">
													<SimplePredicate field="avg_glucose_level" operator="greaterOrEqual" value="181.89"/>
												</Node>
											</Node>
											<Node score="-0.28884593">
												<SimplePredicate field="heart_disease" operator="greaterOrEqual" value="0.5"/>
											</Node>
										</Node>
										<Node score="0.31985316">
											<SimplePredicate field="age" operator="greaterOrEqual" value="71.00222"/>
											<Node score="0.2610608">
												<SimplePredicate field="bmi" operator="greaterOrEqual" value="34.2538"/>
												<Node score="0.42340326">
													<SimplePredicate field="avg_glucose_level" operator="greaterOrEqual" value="183.96626"/>
													<Node score="0.08853438">
														<SimplePredicate field="bmi" operator="greaterOrEqual" value="37.98822"/>
													</Node>
												</Node>
												<Node score="-0.64828515">
													<SimplePredicate field="avg_glucose_level" operator="greaterOrEqual" value="75.14986"/>
												</Node>
											</Node>
											<Node score="0.33507818">
												<SimplePredicate field="age" operator="greaterOrEqual" value="81.99692"/>
												<Node score="-0.20017828">
													<SimplePredicate field="work_type" operator="greaterOrEqual" value="1.5"/>
												</Node>
											</Node>
											<Node score="0.4167737">
												<SimplePredicate field="age" operator="greaterOrEqual" value="78.00401"/>
											</Node>
										</Node>
										<Node score="0.31762826">
											<SimplePredicate field="avg_glucose_level" operator="greaterOrEqual" value="109.88354"/>
											<Node score="-0.5251085">
												<SimplePredicate field="age" operator="greaterOrEqual" value="70.969025"/>
											</Node>
											<Node score="-0.23545025">
												<SimplePredicate field="bmi" operator="greaterOrEqual" value="47.27497"/>
											</Node>
										</Node>
										<Node score="-0.122311495">
											<SimplePredicate field="smoking_status" operator="greaterOrEqual" value="1.5"/>
											<Node score="-0.57290703">
												<SimplePredicate field="avg_glucose_level" operator="greaterOrEqual" value="98.88439"/>
											</Node>
										</Node>
										<Node score="0.076867186">
											<SimplePredicate field="age" operator="greaterOrEqual" value="58.995567"/>
										</Node>
									</Node>
									<Node score="-0.04353802">
										<SimplePredicate field="age" operator="greaterOrEqual" value="46.007404"/>
										<Node score="0.040705122">
											<SimplePredicate field="gender" operator="greaterOrEqual" value="0.5"/>
											<Node score="-0.49392787">
												<SimplePredicate field="ever_married" operator="greaterOrEqual" value="0.5"/>
												<Node score="0.42185062">
													<SimplePredicate field="age" operator="greaterOrEqual" value="55.00453"/>
													<Node score="-0.43262988">
														<SimplePredicate field="age" operator="greaterOrEqual" value="55.82286"/>
													</Node>
												</Node>
												<Node score="-0.30565584">
													<SimplePredicate field="bmi" operator="greaterOrEqual" value="38.240448"/>
												</Node>
											</Node>
											<Node score="-0.39342576">
												<SimplePredicate field="work_type" operator="greaterOrEqual" value="1.5"/>
												<Node score="-0.05012683">
													<SimplePredicate field="avg_glucose_level" operator="greaterOrEqual" value="97.605194"/>
												</Node>
											</Node>
											<Node score="0.34899187">
												<SimplePredicate field="bmi" operator="greaterOrEqual" value="29.330524"/>
											</Node>
										</Node>
										<Node score="0.47997233">
											<SimplePredicate field="Residence_type" operator="greaterOrEqual" value="0.5"/>
											<Node score="-0.33758312">
												<SimplePredicate field="ever_married" operator="greaterOrEqual" value="0.5"/>
												<Node score="0.158748">
													<SimplePredicate field="avg_glucose_level" operator="greaterOrEqual" value="154.97644"/>
												</Node>
											</Node>
											<Node score="-0.21206184">
												<SimplePredicate field="avg_glucose_level" operator="greaterOrEqual" value="84.92885"/>
											</Node>
										</Node>
										<Node score="0.3016378">
											<SimplePredicate field="bmi" operator="greaterOrEqual" value="25.55"/>
											<Node score="-0.06486223">
												<SimplePredicate field="bmi" operator="greaterOrEqual" value="31.980717"/>
											</Node>
										</Node>
										<Node score="-0.42392793">
											<SimplePredicate field="age" operator="greaterOrEqual" value="48.664917"/>
										</Node>
									</Node>
									<Node score="0.34355557">
										<SimplePredicate field="age" operator="greaterOrEqual" value="38.039516"/>
										<Node score="-0.48790377">
											<SimplePredicate field="age" operator="greaterOrEqual" value="38.955925"/>
											<Node score="0.3702063">
												<SimplePredicate field="work_type" operator="greaterOrEqual" value="0.5"/>
												<Node score="-0.30850446">
													<SimplePredicate field="work_type" operator="greaterOrEqual" value="1.5"/>
												</Node>
											</Node>
										</Node>
									</Node>
									<Node score="-0.46043995">
										<SimplePredicate field="avg_glucose_level" operator="greaterOrEqual" value="79.567825"/>
									</Node>
									<Node score="-0.102095045">
										<SimplePredicate field="bmi" operator="greaterOrEqual" value="27.312334"/>
										<Node score="-0.4167892">
											<SimplePredicate field="bmi" operator="greaterOrEqual" value="30.95"/>
										</Node>
									</Node>
								</Node>
							</TreeModel>
						</Segment>
						<Segment id="3">
							<True/>
							<TreeModel functionName="regression" noTrueChildStrategy="returnLastPrediction" x-mathContext="float">
								<MiningSchema>
									<MiningField name="gender"/>
									<MiningField name="age"/>
									<MiningField name="heart_disease"/>
									<MiningField name="ever_married"/>
									<MiningField name="work_type"/>
									<MiningField name="Residence_type"/>
									<MiningField name="avg_glucose_level"/>
									<MiningField name="bmi"/>
									<MiningField name="smoking_status"/>
								</MiningSchema>
								<Node score="-0.40045223">
									<True/>
									<Node score="-0.27753526">
										<SimplePredicate field="age" operator="greaterOrEqual" value="49.039337"/>
										<Node score="0.35730895">
											<SimplePredicate field="age" operator="greaterOrEqual" value="67.00055"/>
											<Node score="0.18426222">
												<SimplePredicate field="work_type" operator="greaterOrEqual" value="2.5"/>
												<Node score="-0.36510795">
													<SimplePredicate field="avg_glucose_level" operator="greaterOrEqual" value="206.355"/>
												</Node>
												<Node score="-0.45407665">
													<SimplePredicate field="age" operator="greaterOrEqual" value="81.64412"/>
												</Node>
												<Node score="-0.043358687">
													<SimplePredicate field="Residence_type" operator="greaterOrEqual" value="0.5"/>
												</Node>
											</Node>
											<Node score="0.36544406">
												<SimplePredicate field="Residence_type" operator="greaterOrEqual" value="0.5"/>
												<Node score="-0.061253324">
													<SimplePredicate field="ever_married" operator="greaterOrEqual" value="0.5"/>
													<Node score="0.18697456">
														<SimplePredicate field="avg_glucose_level" operator="greaterOrEqual" value="96.40271"/>
													</Node>
												</Node>
												<Node score="0.015861649">
													<SimplePredicate field="gender" operator="greaterOrEqual" value="0.5"/>
												</Node>
											</Node>
											<Node score="-0.23370726">
												<SimplePredicate field="heart_disease" operator="greaterOrEqual" value="0.5"/>
												<Node score="0.23803766">
													<SimplePredicate field="avg_glucose_level" operator="greaterOrEqual" value="126.815"/>
												</Node>
											</Node>
											<Node score="0.25705838">
												<SimplePredicate field="smoking_status" operator="greaterOrEqual" value="1.5"/>
											</Node>
										</Node>
										<Node score="-0.32234618">
											<SimplePredicate field="work_type" operator="greaterOrEqual" value="2.5"/>
											<Node score="-0.25939223">
												<SimplePredicate field="avg_glucose_level" operator="greaterOrEqual" value="111.96001"/>
												<Node score="-0.07730454">
													<SimplePredicate field="avg_glucose_level" operator="greaterOrEqual" value="119.585"/>
													<Node score="-0.38987496">
														<SimplePredicate field="gender" operator="greaterOrEqual" value="0.5"/>
													</Node>
												</Node>
												<Node score="0.36408657">
													<SimplePredicate field="gender" operator="greaterOrEqual" value="0.5"/>
												</Node>
											</Node>
											<Node score="-0.41780987">
												<SimplePredicate field="avg_glucose_level" operator="greaterOrEqual" value="68.82439"/>
											</Node>
											<Node score="0.16245267">
												<SimplePredicate field="age" operator="greaterOrEqual" value="64.0"/>
											</Node>
										</Node>
										<Node score="0.2158565">
											<SimplePredicate field="bmi" operator="greaterOrEqual" value="27.244808"/>
											<Node score="0.47333232">
												<SimplePredicate field="smoking_status" operator="greaterOrEqual" value="1.5"/>
												<Node score="-0.032073885">
													<SimplePredicate field="age" operator="greaterOrEqual" value="49.997356"/>
												</Node>
											</Node>
											<Node score="-0.07662694">
												<SimplePredicate field="bmi" operator="greaterOrEqual" value="40.477688"/>
											</Node>
										</Node>
										<Node score="-0.45406842">
											<SimplePredicate field="Residence_type" operator="greaterOrEqual" value="0.5"/>
											<Node score="0.18628688">
												<SimplePredicate field="avg_glucose_level" operator="greaterOrEqual" value="203.67496"/>
											</Node>
										</Node>
										<Node score="0.1383979">
											<SimplePredicate field="avg_glucose_level" operator="greaterOrEqual" value="91.261086"/>
										</Node>
									</Node>
									<Node score="0.49807915">
										<SimplePredicate field="age" operator="greaterOrEqual" value="42.07168"/>
										<Node score="0.048925668">
											<SimplePredicate field="age" operator="greaterOrEqual" value="42.96398"/>
											<Node score="0.22458957">
												<SimplePredicate field="Residence_type" operator="greaterOrEqual" value="0.5"/>
												<Node score="-0.36705697">
													<SimplePredicate field="ever_married" operator="greaterOrEqual" value="0.5"/>
													<Node score="-0.12646574">
														<SimplePredicate field="avg_glucose_level" operator="greaterOrEqual" value="146.66765"/>
													</Node>
												</Node>
												<Node score="-0.34396446">
													<SimplePredicate field="avg_glucose_level" operator="greaterOrEqual" value="87.040115"/>
												</Node>
											</Node>
											<Node score="0.06296715">
												<SimplePredicate field="bmi" operator="greaterOrEqual" value="25.69197"/>
												<Node score="-0.17210585">
													<SimplePredicate field="bmi" operator="greaterOrEqual" value="31.363071"/>
												</Node>
											</Node>
											<Node score="-0.36102504">
												<SimplePredicate field="bmi" operator="greaterOrEqual" value="20.820045"/>
											</Node>
										</Node>
									</Node>
									<Node score="-0.3995511">
										<SimplePredicate field="avg_glucose_level" operator="greaterOrEqual" value="83.40643"/>
									</Node>
									<Node score="-0.41654137">
										<SimplePredicate field="gender" operator="greaterOrEqual" value="0.5"/>
									</Node>
									<Node score="-0.18970065">
										<SimplePredicate field="bmi" operator="greaterOrEqual" value="23.9"/>
										<Node score="0.23038274">
											<SimplePredicate field="avg_glucose_level" operator="greaterOrEqual" value="82.235"/>
										</Node>
									</Node>
								</Node>
							</TreeModel>
						</Segment>
						<Segment id="4">
							<True/>
							<TreeModel functionName="regression" noTrueChildStrategy="returnLastPrediction" x-mathContext="float">
								<MiningSchema>
									<MiningField name="gender"/>
									<MiningField name="age"/>
									<MiningField name="heart_disease"/>
									<MiningField name="ever_married"/>
									<MiningField name="work_type"/>
									<MiningField name="Residence_type"/>
									<MiningField name="avg_glucose_level"/>
									<MiningField name="bmi"/>
									<MiningField name="smoking_status"/>
								</MiningSchema>
								<Node score="-0.3647762">
									<True/>
									<Node score="0.30843577">
										<SimplePredicate field="age" operator="greaterOrEqual" value="56.002182"/>
										<Node score="-0.44032857">
											<SimplePredicate field="smoking_status" operator="greaterOrEqual" value="2.5"/>
											<Node score="0.15404436">
												<SimplePredicate field="avg_glucose_level" operator="greaterOrEqual" value="112.09"/>
												<Node score="0.37188703">
													<SimplePredicate field="bmi" operator="greaterOrEqual" value="35.45"/>
													<Node score="-0.3558178">
														<SimplePredicate field="age" operator="greaterOrEqual" value="65.0"/>
													</Node>
													<Node score="-0.038122114">
														<SimplePredicate field="bmi" operator="greaterOrEqual" value="43.23452"/>
													</Node>
												</Node>
												<Node score="0.33459663">
													<SimplePredicate field="avg_glucose_level" operator="greaterOrEqual" value="251.47302"/>
												</Node>
												<Node score="-0.34014916">
													<SimplePredicate field="bmi" operator="greaterOrEqual" value="25.999428"/>
												</Node>
											</Node>
											<Node score="-0.024475534">
												<SimplePredicate field="avg_glucose_level" operator="greaterOrEqual" value="82.46001"/>
												<Node score="-0.5163577">
													<SimplePredicate field="age" operator="greaterOrEqual" value="60.5"/>
												</Node>
												<Node score="-0.3429932">
													<SimplePredicate field="bmi" operator="greaterOrEqual" value="28.063652"/>
												</Node>
											</Node>
											<Node score="0.41702586">
												<SimplePredicate field="avg_glucose_level" operator="greaterOrEqual" value="75.945"/>
												<Node score="-0.33126545">
													<SimplePredicate field="bmi" operator="greaterOrEqual" value="28.896618"/>
												</Node>
											</Node>
											<Node score="0.08096375">
												<SimplePredicate field="age" operator="greaterOrEqual" value="79.5"/>
											</Node>
										</Node>
										<Node score="-0.5072315">
											<SimplePredicate field="Residence_type" operator="greaterOrEqual" value="0.5"/>
											<Node score="0.31219387">
												<SimplePredicate field="avg_glucose_level" operator="greaterOrEqual" value="67.18"/>
												<Node score="-0.06767789">
													<SimplePredicate field="ever_married" operator="greaterOrEqual" value="0.5"/>
													<Node score="0.1333002">
														<SimplePredicate field="avg_glucose_level" operator="greaterOrEqual" value="103.49481"/>
													</Node>
												</Node>
												<Node score="0.11480719">
													<SimplePredicate field="gender" operator="greaterOrEqual" value="0.5"/>
												</Node>
											</Node>
											<Node score="-0.34342885">
												<SimplePredicate field="age" operator="greaterOrEqual" value="74.596794"/>
												<Node score="0.06752609">
													<SimplePredicate field="bmi" operator="greaterOrEqual" value="28.496618"/>
												</Node>
											</Node>
										</Node>
										<Node score="-0.546482">
											<SimplePredicate field="gender" operator="greaterOrEqual" value="0.5"/>
											<Node score="0.1705559">
												<SimplePredicate field="avg_glucose_level" operator="greaterOrEqual" value="69.37575"/>
												<Node score="-0.11078593">
													<SimplePredicate field="heart_disease" operator="greaterOrEqual" value="0.5"/>
												</Node>
											</Node>
											<Node score="-0.12663105">
												<SimplePredicate field="work_type" operator="greaterOrEqual" value="2.5"/>
											</Node>
										</Node>
										<Node score="-0.25164664">
											<SimplePredicate field="smoking_status" operator="greaterOrEqual" value="1.5"/>
											<Node score="0.16905794">
												<SimplePredicate field="bmi" operator="greaterOrEqual" value="21.518034"/>
											</Node>
										</Node>
										<Node score="0.16641179">
											<SimplePredicate field="bmi" operator="greaterOrEqual" value="33.391335"/>
										</Node>
									</Node>
									<Node score="-0.3562569">
										<SimplePredicate field="age" operator="greaterOrEqual" value="43.01555"/>
										<Node score="0.3035735">
											<SimplePredicate field="gender" operator="greaterOrEqual" value="0.5"/>
											<Node score="-0.38687143">
												<SimplePredicate field="ever_married" operator="greaterOrEqual" value="0.5"/>
												<Node score="0.32015893">
													<SimplePredicate field="age" operator="greaterOrEqual" value="55.00453"/>
													<Node score="-0.35048932">
														<SimplePredicate field="age" operator="greaterOrEqual" value="55.82286"/>
													</Node>
												</Node>
												<Node score="-0.21927816">
													<SimplePredicate field="bmi" operator="greaterOrEqual" value="38.240448"/>
												</Node>
											</Node>
											<Node score="-0.076204956">
												<SimplePredicate field="work_type" operator="greaterOrEqual" value="1.5"/>
												<Node score="-0.33481494">
													<SimplePredicate field="Residence_type" operator="greaterOrEqual" value="0.5"/>
												</Node>
											</Node>
											<Node score="-0.10150088">
												<SimplePredicate field="avg_glucose_level" operator="greaterOrEqual" value="87.82733"/>
											</Node>
										</Node>
										<Node score="0.10949158">
											<SimplePredicate field="bmi" operator="greaterOrEqual" value="25.55"/>
											<Node score="-0.48306215">
												<SimplePredicate field="age" operator="greaterOrEqual" value="55.9998"/>
											</Node>
											<Node score="-0.29427427">
												<SimplePredicate field="work_type" operator="greaterOrEqual" value="2.5"/>
											</Node>
										</Node>
										<Node score="-0.3794996">
											<SimplePredicate field="avg_glucose_level" operator="greaterOrEqual" value="81.64462"/>
										</Node>
										<Node score="0.32644415">
											<SimplePredicate field="avg_glucose_level" operator="greaterOrEqual" value="73.31945"/>
										</Node>
									</Node>
									<Node score="-0.3577106">
										<SimplePredicate field="avg_glucose_level" operator="greaterOrEqual" value="83.49942"/>
									</Node>
									<Node score="-0.3760712">
										<SimplePredicate field="gender" operator="greaterOrEqual" value="0.5"/>
										<Node score="-0.11161551">
											<SimplePredicate field="avg_glucose_level" operator="greaterOrEqual" value="83.155"/>
										</Node>
									</Node>
									<Node score="-0.012452674">
										<SimplePredicate field="bmi" operator="greaterOrEqual" value="23.9"/>
										<Node score="-0.24434327">
											<SimplePredicate field="Residence_type" operator="greaterOrEqual" value="0.5"/>
										</Node>
									</Node>
								</Node>
							</TreeModel>
						</Segment>
						<Segment id="5">
							<True/>
							<TreeModel functionName="regression" noTrueChildStrategy="returnLastPrediction" x-mathContext="float">
								<MiningSchema>
									<MiningField name="gender"/>
									<MiningField name="age"/>
									<MiningField name="hypertension"/>
									<MiningField name="heart_disease"/>
									<MiningField name="ever_married"/>
									<MiningField name="work_type"/>
									<MiningField name="avg_glucose_level"/>
									<MiningField name="bmi"/>
									<MiningField name="smoking_status"/>
								</MiningSchema>
								<Node score="-0.34747148">
									<True/>
									<Node score="0.019219512">
										<SimplePredicate field="age" operator="greaterOrEqual" value="46.007404"/>
										<Node score="0.11620071">
											<SimplePredicate field="age" operator="greaterOrEqual" value="73.009705"/>
											<Node score="0.020548726">
												<SimplePredicate field="work_type" operator="greaterOrEqual" value="2.5"/>
												<Node score="-0.43933746">
													<SimplePredicate field="bmi" operator="greaterOrEqual" value="33.85"/>
												</Node>
												<Node score="0.2618309">
													<SimplePredicate field="bmi" operator="greaterOrEqual" value="27.018703"/>
													<Node score="-0.029140973">
														<SimplePredicate field="age" operator="greaterOrEqual" value="77.98204"/>
													</Node>
												</Node>
												<Node score="-0.293959">
													<SimplePredicate field="avg_glucose_level" operator="greaterOrEqual" value="82.08"/>
												</Node>
											</Node>
											<Node score="0.068630345">
												<SimplePredicate field="bmi" operator="greaterOrEqual" value="34.2538"/>
												<Node score="0.1295844">
													<SimplePredicate field="ever_married" operator="greaterOrEqual" value="0.5"/>
													<Node score="-0.24507292">
														<SimplePredicate field="age" operator="greaterOrEqual" value="74.976135"/>
													</Node>
												</Node>
												<Node score="0.31757346">
													<SimplePredicate field="bmi" operator="greaterOrEqual" value="34.70352"/>
												</Node>
											</Node>
											<Node score="0.21980232">
												<SimplePredicate field="hypertension" operator="greaterOrEqual" value="0.5"/>
												<Node score="-0.06510606">
													<SimplePredicate field="avg_glucose_level" operator="greaterOrEqual" value="85.26494"/>
												</Node>
											</Node>
											<Node score="0.26304555">
												<SimplePredicate field="work_type" operator="greaterOrEqual" value="0.5"/>
											</Node>
										</Node>
										<Node score="-0.35054109">
											<SimplePredicate field="avg_glucose_level" operator="greaterOrEqual" value="161.58499"/>
											<Node score="-0.40209082">
												<SimplePredicate field="gender" operator="greaterOrEqual" value="0.5"/>
												<Node score="0.34959278">
													<SimplePredicate field="age" operator="greaterOrEqual" value="55.5"/>
													<Node score="0.026209245">
														<SimplePredicate field="ever_married" operator="greaterOrEqual" value="0.5"/>
													</Node>
												</Node>
											</Node>
											<Node score="0.25350413">
												<SimplePredicate field="bmi" operator="greaterOrEqual" value="27.425077"/>
												<Node score="-0.025383469">
													<SimplePredicate field="heart_disease" operator="greaterOrEqual" value="0.5"/>
												</Node>
											</Node>
											<Node score="0.09736141">
												<SimplePredicate field="age" operator="greaterOrEqual" value="67.27423"/>
											</Node>
										</Node>
										<Node score="-0.54697555">
											<SimplePredicate field="avg_glucose_level" operator="greaterOrEqual" value="120.17551"/>
											<Node score="-0.042733748">
												<SimplePredicate field="avg_glucose_level" operator="greaterOrEqual" value="146.428"/>
												<Node score="-0.43661204">
													<SimplePredicate field="smoking_status" operator="greaterOrEqual" value="1.5"/>
												</Node>
											</Node>
											<Node score="-0.090014525">
												<SimplePredicate field="age" operator="greaterOrEqual" value="67.073944"/>
											</Node>
										</Node>
										<Node score="0.08989431">
											<SimplePredicate field="hypertension" operator="greaterOrEqual" value="0.5"/>
											<Node score="-0.33783075">
												<SimplePredicate field="smoking_status" operator="greaterOrEqual" value="0.5"/>
											</Node>
										</Node>
										<Node score="-0.65515083">
											<SimplePredicate field="age" operator="greaterOrEqual" value="72.99495"/>
										</Node>
									</Node>
									<Node score="-0.3440615">
										<SimplePredicate field="gender" operator="greaterOrEqual" value="0.5"/>
									</Node>
									<Node score="-0.09056509">
										<SimplePredicate field="bmi" operator="greaterOrEqual" value="23.95"/>
										<Node score="-0.34010687">
											<SimplePredicate field="avg_glucose_level" operator="greaterOrEqual" value="83.44144"/>
											<Node score="0.15236866">
												<SimplePredicate field="age" operator="greaterOrEqual" value="42.093483"/>
												<Node score="-0.20491502">
													<SimplePredicate field="age" operator="greaterOrEqual" value="43.99893"/>
												</Node>
											</Node>
											<Node score="-0.22513995">
												<SimplePredicate field="age" operator="greaterOrEqual" value="37.5"/>
											</Node>
										</Node>
										<Node score="0.19127041">
											<SimplePredicate field="bmi" operator="greaterOrEqual" value="31.0"/>
											<Node score="-0.36064565">
												<SimplePredicate field="avg_glucose_level" operator="greaterOrEqual" value="61.268806"/>
											</Node>
										</Node>
										<Node score="0.22200882">
											<SimplePredicate field="avg_glucose_level" operator="greaterOrEqual" value="76.85661"/>
										</Node>
									</Node>
								</Node>
							</TreeModel>
						</Segment>
						<Segment id="6">
							<True/>
							<TreeModel functionName="regression" noTrueChildStrategy="returnLastPrediction" x-mathContext="float">
								<MiningSchema>
									<MiningField name="gender"/>
									<MiningField name="age"/>
									<MiningField name="hypertension"/>
									<MiningField name="heart_disease"/>
									<MiningField name="ever_married"/>
									<MiningField name="work_type"/>
									<MiningField name="Residence_type"/>
									<MiningField name="avg_glucose_level"/>
									<MiningField name="bmi"/>
									<MiningField name="smoking_status"/>
								</MiningSchema>
								<Node score="-0.32732683">
									<True/>
									<Node score="0.012062954">
										<SimplePredicate field="age" operator="greaterOrEqual" value="45.032936"/>
										<Node score="-0.5037938">
											<SimplePredicate field="smoking_status" operator="greaterOrEqual" value="2.5"/>
											<Node score="0.16137479">
												<SimplePredicate field="avg_glucose_level" operator="greaterOrEqual" value="96.89"/>
												<Node score="-0.38168123">
													<SimplePredicate field="work_type" operator="greaterOrEqual" value="2.5"/>
													<Node score="-0.0140493475">
														<SimplePredicate field="heart_disease" operator="greaterOrEqual" value="0.5"/>
													</Node>
													<Node score="-0.028852502">
														<SimplePredicate field="bmi" operator="greaterOrEqual" value="35.35"/>
													</Node>
												</Node>
												<Node score="-0.2951515">
													<SimplePredicate field="Residence_type" operator="greaterOrEqual" value="0.5"/>
													<Node score="0.20640533">
														<SimplePredicate field="bmi" operator="greaterOrEqual" value="37.15"/>
													</Node>
												</Node>
												<Node score="-0.23081036">
													<SimplePredicate field="hypertension" operator="greaterOrEqual" value="0.5"/>
												</Node>
											</Node>
											<Node score="-0.33720315">
												<SimplePredicate field="gender" operator="greaterOrEqual" value="0.5"/>
												<Node score="-0.33827066">
													<SimplePredicate field="bmi" operator="greaterOrEqual" value="28.896618"/>
													<Node score="-0.09603917">
														<SimplePredicate field="heart_disease" operator="greaterOrEqual" value="0.5"/>
													</Node>
												</Node>
												<Node score="0.21629007">
													<SimplePredicate field="avg_glucose_level" operator="greaterOrEqual" value="75.555"/>
												</Node>
											</Node>
											<Node score="0.10724253">
												<SimplePredicate field="age" operator="greaterOrEqual" value="80.17972"/>
											</Node>
											<Node score="-0.20403366">
												<SimplePredicate field="work_type" operator="greaterOrEqual" value="2.5"/>
											</Node>
										</Node>
										<Node score="0.21384801">
											<SimplePredicate field="age" operator="greaterOrEqual" value="75.00544"/>
											<Node score="0.2204933">
												<SimplePredicate field="age" operator="greaterOrEqual" value="81.99692"/>
												<Node score="-0.12520649">
													<SimplePredicate field="work_type" operator="greaterOrEqual" value="1.5"/>
													<Node score="-0.40978137">
														<SimplePredicate field="ever_married" operator="greaterOrEqual" value="0.5"/>
													</Node>
												</Node>
											</Node>
											<Node score="0.19717586">
												<SimplePredicate field="bmi" operator="greaterOrEqual" value="33.390568"/>
												<Node score="-0.14617346">
													<SimplePredicate field="avg_glucose_level" operator="greaterOrEqual" value="69.56038"/>
												</Node>
											</Node>
											<Node score="-0.041292787">
												<SimplePredicate field="heart_disease" operator="greaterOrEqual" value="0.5"/>
											</Node>
										</Node>
										<Node score="0.20628364">
											<SimplePredicate field="age" operator="greaterOrEqual" value="74.976135"/>
											<Node score="-0.82960427">
												<SimplePredicate field="ever_married" operator="greaterOrEqual" value="0.5"/>
												<Node score="-0.34194756">
													<SimplePredicate field="bmi" operator="greaterOrEqual" value="28.79662"/>
												</Node>
											</Node>
										</Node>
										<Node score="-0.034019817">
											<SimplePredicate field="work_type" operator="greaterOrEqual" value="1.5"/>
											<Node score="0.11570501">
												<SimplePredicate field="avg_glucose_level" operator="greaterOrEqual" value="159.68936"/>
											</Node>
										</Node>
										<Node score="0.43577623">
											<SimplePredicate field="work_type" operator="greaterOrEqual" value="0.5"/>
										</Node>
									</Node>
									<Node score="-0.33102334">
										<SimplePredicate field="avg_glucose_level" operator="greaterOrEqual" value="84.09818"/>
										<Node score="-0.12761202">
											<SimplePredicate field="age" operator="greaterOrEqual" value="37.5"/>
											<Node score="-0.3465199">
												<SimplePredicate field="bmi" operator="greaterOrEqual" value="30.585934"/>
												<Node score="0.38522223">
													<SimplePredicate field="bmi" operator="greaterOrEqual" value="42.867508"/>
													<Node score="-0.2758686">
														<SimplePredicate field="smoking_status" operator="greaterOrEqual" value="0.5"/>
													</Node>
												</Node>
											</Node>
											<Node score="0.43553784">
												<SimplePredicate field="bmi" operator="greaterOrEqual" value="29.527746"/>
												<Node score="-0.25135744">
													<SimplePredicate field="avg_glucose_level" operator="greaterOrEqual" value="103.59965"/>
												</Node>
											</Node>
											<Node score="-0.32978538">
												<SimplePredicate field="age" operator="greaterOrEqual" value="38.5"/>
											</Node>
										</Node>
									</Node>
									<Node score="-0.056430712">
										<SimplePredicate field="bmi" operator="greaterOrEqual" value="23.95"/>
										<Node score="-0.33032018">
											<SimplePredicate field="gender" operator="greaterOrEqual" value="0.5"/>
											<Node score="0.0505883">
												<SimplePredicate field="avg_glucose_level" operator="greaterOrEqual" value="83.42943"/>
											</Node>
										</Node>
										<Node score="-0.3334096">
											<SimplePredicate field="smoking_status" operator="greaterOrEqual" value="1.5"/>
											<Node score="-0.05526529">
												<SimplePredicate field="age" operator="greaterOrEqual" value="31.035585"/>
											</Node>
										</Node>
										<Node score="0.35049647">
											<SimplePredicate field="work_type" operator="greaterOrEqual" value="2.5"/>
										</Node>
									</Node>
								</Node>
							</TreeModel>
						</Segment>
						<Segment id="7">
							<True/>
							<TreeModel functionName="regression" noTrueChildStrategy="returnLastPrediction" x-mathContext="float">
								<MiningSchema>
									<MiningField name="gender"/>
									<MiningField name="age"/>
									<MiningField name="ever_married"/>
									<MiningField name="work_type"/>
									<MiningField name="Residence_type"/>
									<MiningField name="avg_glucose_level"/>
									<MiningField name="bmi"/>
									<MiningField name="smoking_status"/>
								</MiningSchema>
								<Node score="-0.31437042">
									<True/>
									<Node score="-0.20802023">
										<SimplePredicate field="age" operator="greaterOrEqual" value="45.032936"/>
										<Node score="-0.17441724">
											<SimplePredicate field="Residence_type" operator="greaterOrEqual" value="0.5"/>
											<Node score="-0.23660074">
												<SimplePredicate field="ever_married" operator="greaterOrEqual" value="0.5"/>
												<Node score="-0.1795472">
													<SimplePredicate field="avg_glucose_level" operator="greaterOrEqual" value="104.44"/>
													<Node score="0.11371572">
														<SimplePredicate field="bmi" operator="greaterOrEqual" value="26.113575"/>
														<Node score="-0.072991975">
															<SimplePredicate field="smoking_status" operator="greaterOrEqual" value="1.5"/>
														</Node>
													</Node>
													<Node score="-0.5946106">
														<SimplePredicate field="avg_glucose_level" operator="greaterOrEqual" value="222.98474"/>
													</Node>
												</Node>
												<Node score="-0.15338725">
													<SimplePredicate field="avg_glucose_level" operator="greaterOrEqual" value="75.49461"/>
													<Node score="-0.37085846">
														<SimplePredicate field="bmi" operator="greaterOrEqual" value="31.751312"/>
													</Node>
												</Node>
												<Node score="0.10946857">
													<SimplePredicate field="avg_glucose_level" operator="greaterOrEqual" value="67.30989"/>
												</Node>
											</Node>
											<Node score="-0.27520102">
												<SimplePredicate field="gender" operator="greaterOrEqual" value="0.5"/>
												<Node score="-0.08180876">
													<SimplePredicate field="bmi" operator="greaterOrEqual" value="30.892427"/>
													<Node score="-0.42265475">
														<SimplePredicate field="age" operator="greaterOrEqual" value="58.0"/>
													</Node>
												</Node>
												<Node score="0.17636453">
													<SimplePredicate field="avg_glucose_level" operator="greaterOrEqual" value="84.24844"/>
												</Node>
											</Node>
											<Node score="-0.2234937">
												<SimplePredicate field="avg_glucose_level" operator="greaterOrEqual" value="98.388306"/>
												<Node score="0.2529584">
													<SimplePredicate field="age" operator="greaterOrEqual" value="74.1379"/>
												</Node>
											</Node>
											<Node score="0.29772893">
												<SimplePredicate field="avg_glucose_level" operator="greaterOrEqual" value="63.887833"/>
											</Node>
										</Node>
										<Node score="-0.13389277">
											<SimplePredicate field="work_type" operator="greaterOrEqual" value="2.5"/>
											<Node score="0.14357445">
												<SimplePredicate field="age" operator="greaterOrEqual" value="60.055183"/>
												<Node score="-0.47905624">
													<SimplePredicate field="avg_glucose_level" operator="greaterOrEqual" value="93.52028"/>
													<Node score="-0.01558059">
														<SimplePredicate field="avg_glucose_level" operator="greaterOrEqual" value="104.92081"/>
													</Node>
												</Node>
												<Node score="-0.33996606">
													<SimplePredicate field="bmi" operator="greaterOrEqual" value="34.174034"/>
												</Node>
											</Node>
											<Node score="-0.25269789">
												<SimplePredicate field="bmi" operator="greaterOrEqual" value="34.00322"/>
												<Node score="0.12037472">
													<SimplePredicate field="avg_glucose_level" operator="greaterOrEqual" value="110.36975"/>
												</Node>
											</Node>
											<Node score="-0.35864335">
												<SimplePredicate field="bmi" operator="greaterOrEqual" value="25.75"/>
											</Node>
										</Node>
										<Node score="-0.25293857">
											<SimplePredicate field="age" operator="greaterOrEqual" value="76.003456"/>
											<Node score="-0.23254208">
												<SimplePredicate field="bmi" operator="greaterOrEqual" value="33.666122"/>
												<Node score="0.26690397">
													<SimplePredicate field="avg_glucose_level" operator="greaterOrEqual" value="186.28058"/>
												</Node>
											</Node>
											<Node score="0.24181594">
												<SimplePredicate field="bmi" operator="greaterOrEqual" value="18.105675"/>
											</Node>
										</Node>
										<Node score="-0.26633894">
											<SimplePredicate field="gender" operator="greaterOrEqual" value="0.5"/>
											<Node score="0.032503083">
												<SimplePredicate field="bmi" operator="greaterOrEqual" value="27.305807"/>
											</Node>
										</Node>
										<Node score="0.1391248">
											<SimplePredicate field="bmi" operator="greaterOrEqual" value="22.804821"/>
										</Node>
									</Node>
									<Node score="-0.32021743">
										<SimplePredicate field="avg_glucose_level" operator="greaterOrEqual" value="84.09818"/>
										<Node score="-0.3074549">
											<SimplePredicate field="age" operator="greaterOrEqual" value="37.5"/>
											<Node score="0.26658136">
												<SimplePredicate field="bmi" operator="greaterOrEqual" value="28.746618"/>
												<Node score="-0.3209003">
													<SimplePredicate field="bmi" operator="greaterOrEqual" value="30.25"/>
													<Node score="-0.04591833">
														<SimplePredicate field="avg_glucose_level" operator="greaterOrEqual" value="142.33905"/>
													</Node>
												</Node>
												<Node score="-0.22016062">
													<SimplePredicate field="gender" operator="greaterOrEqual" value="0.5"/>
												</Node>
											</Node>
										</Node>
									</Node>
									<Node score="-0.32861617">
										<SimplePredicate field="bmi" operator="greaterOrEqual" value="23.95"/>
										<Node score="-0.31398705">
											<SimplePredicate field="gender" operator="greaterOrEqual" value="0.5"/>
											<Node score="0.04063714">
												<SimplePredicate field="avg_glucose_level" operator="greaterOrEqual" value="83.42943"/>
											</Node>
										</Node>
										<Node score="-0.33221367">
											<SimplePredicate field="bmi" operator="greaterOrEqual" value="39.421623"/>
										</Node>
										<Node score="0.02955577">
											<SimplePredicate field="work_type" operator="greaterOrEqual" value="0.5"/>
										</Node>
									</Node>
								</Node>
							</TreeModel>
						</Segment>
						<Segment id="8">
							<True/>
							<TreeModel functionName="regression" noTrueChildStrategy="returnLastPrediction" x-mathContext="float">
								<MiningSchema>
									<MiningField name="gender"/>
									<MiningField name="age"/>
									<MiningField name="hypertension"/>
									<MiningField name="ever_married"/>
									<MiningField name="work_type"/>
									<MiningField name="Residence_type"/>
									<MiningField name="avg_glucose_level"/>
									<MiningField name="bmi"/>
									<MiningField name="smoking_status"/>
								</MiningSchema>
								<Node score="-0.31398666">
									<True/>
									<Node score="0.27404383">
										<SimplePredicate field="age" operator="greaterOrEqual" value="55.00453"/>
										<Node score="0.04992414">
											<SimplePredicate field="hypertension" operator="greaterOrEqual" value="0.5"/>
											<Node score="-0.047447313">
												<SimplePredicate field="avg_glucose_level" operator="greaterOrEqual" value="239.43484"/>
												<Node score="0.3505528">
													<SimplePredicate field="bmi" operator="greaterOrEqual" value="27.456657"/>
													<Node score="0.076177284">
														<SimplePredicate field="avg_glucose_level" operator="greaterOrEqual" value="253.13724"/>
													</Node>
												</Node>
											</Node>
											<Node score="-0.6131111">
												<SimplePredicate field="avg_glucose_level" operator="greaterOrEqual" value="222.04"/>
											</Node>
											<Node score="-0.11321425">
												<SimplePredicate field="age" operator="greaterOrEqual" value="71.11932"/>
												<Node score="0.13957076">
													<SimplePredicate field="avg_glucose_level" operator="greaterOrEqual" value="183.79626"/>
												</Node>
											</Node>
											<Node score="-0.29782018">
												<SimplePredicate field="age" operator="greaterOrEqual" value="58.89734"/>
											</Node>
										</Node>
										<Node score="-0.0074846074">
											<SimplePredicate field="work_type" operator="greaterOrEqual" value="2.5"/>
											<Node score="-0.09224074">
												<SimplePredicate field="smoking_status" operator="greaterOrEqual" value="0.5"/>
												<Node score="0.05578108">
													<SimplePredicate field="bmi" operator="greaterOrEqual" value="25.408363"/>
													<Node score="-0.32223386">
														<SimplePredicate field="avg_glucose_level" operator="greaterOrEqual" value="206.2554"/>
													</Node>
												</Node>
												<Node score="-0.3384892">
													<SimplePredicate field="avg_glucose_level" operator="greaterOrEqual" value="77.105484"/>
												</Node>
											</Node>
											<Node score="-0.45545265">
												<SimplePredicate field="bmi" operator="greaterOrEqual" value="22.692146"/>
												<Node score="-0.09584085">
													<SimplePredicate field="avg_glucose_level" operator="greaterOrEqual" value="106.31998"/>
												</Node>
											</Node>
											<Node score="0.22846094">
												<SimplePredicate field="age" operator="greaterOrEqual" value="80.5"/>
											</Node>
										</Node>
										<Node score="-0.04577037">
											<SimplePredicate field="smoking_status" operator="greaterOrEqual" value="1.5"/>
											<Node score="0.28860942">
												<SimplePredicate field="avg_glucose_level" operator="greaterOrEqual" value="208.11546"/>
												<Node score="0.12805407">
													<SimplePredicate field="age" operator="greaterOrEqual" value="58.98029"/>
												</Node>
											</Node>
											<Node score="0.14359117">
												<SimplePredicate field="age" operator="greaterOrEqual" value="78.00401"/>
											</Node>
										</Node>
										<Node score="0.2015161">
											<SimplePredicate field="avg_glucose_level" operator="greaterOrEqual" value="100.167435"/>
											<Node score="-0.40460294">
												<SimplePredicate field="bmi" operator="greaterOrEqual" value="47.113586"/>
											</Node>
										</Node>
										<Node score="0.030534388">
											<SimplePredicate field="ever_married" operator="greaterOrEqual" value="0.5"/>
										</Node>
									</Node>
									<Node score="-0.31436062">
										<SimplePredicate field="gender" operator="greaterOrEqual" value="0.5"/>
										<Node score="-0.28528208">
											<SimplePredicate field="work_type" operator="greaterOrEqual" value="1.5"/>
											<Node score="-0.2090382">
												<SimplePredicate field="bmi" operator="greaterOrEqual" value="36.92193"/>
												<Node score="-0.0893204">
													<SimplePredicate field="smoking_status" operator="greaterOrEqual" value="1.5"/>
													<Node score="-0.32562596">
														<SimplePredicate field="bmi" operator="greaterOrEqual" value="37.55"/>
													</Node>
												</Node>
												<Node score="0.14537269">
													<SimplePredicate field="age" operator="greaterOrEqual" value="45.42865"/>
												</Node>
											</Node>
											<Node score="-0.3283252">
												<SimplePredicate field="avg_glucose_level" operator="greaterOrEqual" value="71.235"/>
											</Node>
											<Node score="0.2822356">
												<SimplePredicate field="avg_glucose_level" operator="greaterOrEqual" value="70.61954"/>
											</Node>
										</Node>
										<Node score="-0.34832665">
											<SimplePredicate field="avg_glucose_level" operator="greaterOrEqual" value="87.925"/>
										</Node>
										<Node score="0.3381529">
											<SimplePredicate field="avg_glucose_level" operator="greaterOrEqual" value="83.24942"/>
											<Node score="0.0044248933">
												<SimplePredicate field="Residence_type" operator="greaterOrEqual" value="0.5"/>
											</Node>
										</Node>
									</Node>
									<Node score="0.014396412">
										<SimplePredicate field="bmi" operator="greaterOrEqual" value="25.548306"/>
										<Node score="-0.074214876">
											<SimplePredicate field="bmi" operator="greaterOrEqual" value="31.091335"/>
											<Node score="-0.34461787">
												<SimplePredicate field="avg_glucose_level" operator="greaterOrEqual" value="65.440956"/>
												<Node score="0.072028324">
													<SimplePredicate field="avg_glucose_level" operator="greaterOrEqual" value="143.87405"/>
												</Node>
											</Node>
											<Node score="0.30750522">
												<SimplePredicate field="bmi" operator="greaterOrEqual" value="34.283382"/>
											</Node>
										</Node>
										<Node score="0.28363755">
											<SimplePredicate field="bmi" operator="greaterOrEqual" value="29.102634"/>
											<Node score="-0.08407397">
												<SimplePredicate field="avg_glucose_level" operator="greaterOrEqual" value="105.126434"/>
											</Node>
										</Node>
										<Node score="-0.2918876">
											<SimplePredicate field="avg_glucose_level" operator="greaterOrEqual" value="105.74295"/>
										</Node>
									</Node>
									<Node score="-0.3208672">
										<SimplePredicate field="avg_glucose_level" operator="greaterOrEqual" value="83.23378"/>
									</Node>
									<Node score="-0.18512878">
										<SimplePredicate field="avg_glucose_level" operator="greaterOrEqual" value="81.514626"/>
										<Node score="0.3617649">
											<SimplePredicate field="bmi" operator="greaterOrEqual" value="23.9"/>
										</Node>
									</Node>
									<Node score="0.07879588">
										<SimplePredicate field="age" operator="greaterOrEqual" value="47.353004"/>
									</Node>
								</Node>
							</TreeModel>
						</Segment>
						<Segment id="9">
							<True/>
							<TreeModel functionName="regression" noTrueChildStrategy="returnLastPrediction" x-mathContext="float">
								<MiningSchema>
									<MiningField name="gender"/>
									<MiningField name="age"/>
									<MiningField name="hypertension"/>
									<MiningField name="heart_disease"/>
									<MiningField name="ever_married"/>
									<MiningField name="Residence_type"/>
									<MiningField name="avg_glucose_level"/>
									<MiningField name="bmi"/>
									<MiningField name="smoking_status"/>
								</MiningSchema>
								<Node score="-0.29991004">
									<True/>
									<Node score="-0.2718439">
										<SimplePredicate field="age" operator="greaterOrEqual" value="38.039516"/>
										<Node score="0.1878069">
											<SimplePredicate field="avg_glucose_level" operator="greaterOrEqual" value="57.905"/>
											<Node score="0.21320774">
												<SimplePredicate field="Residence_type" operator="greaterOrEqual" value="0.5"/>
												<Node score="0.098310776">
													<SimplePredicate field="ever_married" operator="greaterOrEqual" value="0.5"/>
													<Node score="-0.16746028">
														<SimplePredicate field="age" operator="greaterOrEqual" value="55.00453"/>
														<Node score="0.0024175947">
															<SimplePredicate field="bmi" operator="greaterOrEqual" value="26.113575"/>
														</Node>
													</Node>
													<Node score="-0.19600435">
														<SimplePredicate field="avg_glucose_level" operator="greaterOrEqual" value="64.31"/>
													</Node>
												</Node>
												<Node score="0.070049524">
													<SimplePredicate field="gender" operator="greaterOrEqual" value="0.5"/>
													<Node score="-0.28546172">
														<SimplePredicate field="bmi" operator="greaterOrEqual" value="30.892427"/>
													</Node>
												</Node>
												<Node score="0.042190094">
													<SimplePredicate field="avg_glucose_level" operator="greaterOrEqual" value="98.388306"/>
												</Node>
											</Node>
											<Node score="0.02243254">
												<SimplePredicate field="smoking_status" operator="greaterOrEqual" value="1.5"/>
												<Node score="-0.14097354">
													<SimplePredicate field="avg_glucose_level" operator="greaterOrEqual" value="239.57196"/>
													<Node score="0.29591817">
														<SimplePredicate field="bmi" operator="greaterOrEqual" value="27.287807"/>
													</Node>
												</Node>
												<Node score="-0.1830487">
													<SimplePredicate field="hypertension" operator="greaterOrEqual" value="0.5"/>
												</Node>
											</Node>
											<Node score="0.034911174">
												<SimplePredicate field="gender" operator="greaterOrEqual" value="0.5"/>
												<Node score="-0.24745499">
													<SimplePredicate field="heart_disease" operator="greaterOrEqual" value="0.5"/>
												</Node>
											</Node>
											<Node score="-0.026189925">
												<SimplePredicate field="bmi" operator="greaterOrEqual" value="33.391335"/>
											</Node>
										</Node>
										<Node score="-0.47803792">
											<SimplePredicate field="bmi" operator="greaterOrEqual" value="26.650002"/>
										</Node>
										<Node score="0.061833557">
											<SimplePredicate field="bmi" operator="greaterOrEqual" value="25.370049"/>
										</Node>
									</Node>
									<Node score="-0.30759472">
										<SimplePredicate field="avg_glucose_level" operator="greaterOrEqual" value="78.96835"/>
										<Node score="-0.012006855">
											<SimplePredicate field="age" operator="greaterOrEqual" value="37.5"/>
											<Node score="-0.17014974">
												<SimplePredicate field="bmi" operator="greaterOrEqual" value="29.54662"/>
											</Node>
										</Node>
									</Node>
									<Node score="0.38934818">
										<SimplePredicate field="bmi" operator="greaterOrEqual" value="27.312334"/>
										<Node score="-0.3040881">
											<SimplePredicate field="bmi" operator="greaterOrEqual" value="35.091164"/>
										</Node>
										<Node score="-0.24764948">
											<SimplePredicate field="gender" operator="greaterOrEqual" value="0.5"/>
										</Node>
										<Node score="0.031144382">
											<SimplePredicate field="age" operator="greaterOrEqual" value="17.988142"/>
										</Node>
									</Node>
									<Node score="-0.10150175">
										<SimplePredicate field="bmi" operator="greaterOrEqual" value="27.014679"/>
									</Node>
								</Node>
							</TreeModel>
						</Segment>
						<Segment id="10">
							<True/>
							<TreeModel functionName="regression" noTrueChildStrategy="returnLastPrediction" x-mathContext="float">
								<MiningSchema>
									<MiningField name="gender"/>
									<MiningField name="age"/>
									<MiningField name="hypertension"/>
									<MiningField name="heart_disease"/>
									<MiningField name="ever_married"/>
									<MiningField name="work_type"/>
									<MiningField name="Residence_type"/>
									<MiningField name="avg_glucose_level"/>
									<MiningField name="bmi"/>
									<MiningField name="smoking_status"/>
								</MiningSchema>
								<Node score="-0.2974958">
									<True/>
									<Node score="-0.39263254">
										<SimplePredicate field="age" operator="greaterOrEqual" value="43.01555"/>
										<Node score="-0.119553424">
											<SimplePredicate field="smoking_status" operator="greaterOrEqual" value="2.5"/>
											<Node score="0.25881287">
												<SimplePredicate field="avg_glucose_level" operator="greaterOrEqual" value="96.89"/>
												<Node score="-0.33230904">
													<SimplePredicate field="avg_glucose_level" operator="greaterOrEqual" value="105.175"/>
													<Node score="-0.112046726">
														<SimplePredicate field="age" operator="greaterOrEqual" value="55.005344"/>
														<Node score="0.13785948">
															<SimplePredicate field="bmi" operator="greaterOrEqual" value="35.45"/>
														</Node>
													</Node>
													<Node score="-0.090334624">
														<SimplePredicate field="work_type" operator="greaterOrEqual" value="2.5"/>
													</Node>
												</Node>
												<Node score="-0.032714512">
													<SimplePredicate field="age" operator="greaterOrEqual" value="60.5"/>
													<Node score="-0.33027261">
														<SimplePredicate field="avg_glucose_level" operator="greaterOrEqual" value="99.92"/>
													</Node>
												</Node>
												<Node score="-0.2606815">
													<SimplePredicate field="bmi" operator="greaterOrEqual" value="32.0"/>
												</Node>
											</Node>
											<Node score="-0.26125053">
												<SimplePredicate field="gender" operator="greaterOrEqual" value="0.5"/>
												<Node score="-0.23938088">
													<SimplePredicate field="bmi" operator="greaterOrEqual" value="28.896618"/>
												</Node>
												<Node score="0.21581073">
													<SimplePredicate field="avg_glucose_level" operator="greaterOrEqual" value="75.68"/>
												</Node>
											</Node>
											<Node score="-0.12663716">
												<SimplePredicate field="hypertension" operator="greaterOrEqual" value="0.5"/>
											</Node>
											<Node score="-0.4179903">
												<SimplePredicate field="ever_married" operator="greaterOrEqual" value="0.5"/>
											</Node>
										</Node>
										<Node score="0.22241375">
											<SimplePredicate field="heart_disease" operator="greaterOrEqual" value="0.5"/>
											<Node score="-0.64451355">
												<SimplePredicate field="avg_glucose_level" operator="greaterOrEqual" value="207.75372"/>
												<Node score="0.27179435">
													<SimplePredicate field="bmi" operator="greaterOrEqual" value="27.55"/>
													<Node score="-0.2778896">
														<SimplePredicate field="hypertension" operator="greaterOrEqual" value="0.5"/>
													</Node>
												</Node>
											</Node>
											<Node score="-0.39475095">
												<SimplePredicate field="bmi" operator="greaterOrEqual" value="24.205433"/>
												<Node score="-0.060370505">
													<SimplePredicate field="bmi" operator="greaterOrEqual" value="34.50714"/>
												</Node>
											</Node>
											<Node score="-0.26712036">
												<SimplePredicate field="Residence_type" operator="greaterOrEqual" value="0.5"/>
											</Node>
										</Node>
										<Node score="0.048003998">
											<SimplePredicate field="avg_glucose_level" operator="greaterOrEqual" value="59.743473"/>
											<Node score="-0.21759999">
												<SimplePredicate field="work_type" operator="greaterOrEqual" value="2.5"/>
												<Node score="0.011618566">
													<SimplePredicate field="age" operator="greaterOrEqual" value="63.16291"/>
												</Node>
											</Node>
											<Node score="0.17006196">
												<SimplePredicate field="age" operator="greaterOrEqual" value="78.00401"/>
											</Node>
										</Node>
										<Node score="0.11792986">
											<SimplePredicate field="age" operator="greaterOrEqual" value="75.14202"/>
											<Node score="-0.34372222">
												<SimplePredicate field="smoking_status" operator="greaterOrEqual" value="1.5"/>
											</Node>
										</Node>
									</Node>
									<Node score="-0.30071044">
										<SimplePredicate field="avg_glucose_level" operator="greaterOrEqual" value="83.49942"/>
										<Node score="-0.27079445">
											<SimplePredicate field="age" operator="greaterOrEqual" value="37.5"/>
											<Node score="-0.30073142">
												<SimplePredicate field="bmi" operator="greaterOrEqual" value="30.167942"/>
											</Node>
											<Node score="0.30550316">
												<SimplePredicate field="bmi" operator="greaterOrEqual" value="29.527746"/>
												<Node score="-0.08479276">
													<SimplePredicate field="Residence_type" operator="greaterOrEqual" value="0.5"/>
												</Node>
											</Node>
											<Node score="-0.029745704">
												<SimplePredicate field="bmi" operator="greaterOrEqual" value="28.746618"/>
											</Node>
										</Node>
									</Node>
									<Node score="-0.19085342">
										<SimplePredicate field="avg_glucose_level" operator="greaterOrEqual" value="82.73807"/>
										<Node score="0.32103804">
											<SimplePredicate field="age" operator="greaterOrEqual" value="36.742775"/>
										</Node>
									</Node>
									<Node score="0.07308935">
										<SimplePredicate field="bmi" operator="greaterOrEqual" value="27.312334"/>
										<Node score="0.16286387">
											<SimplePredicate field="Residence_type" operator="greaterOrEqual" value="0.5"/>
											<Node score="-0.26714072">
												<SimplePredicate field="age" operator="greaterOrEqual" value="11.8575115"/>
											</Node>
										</Node>
										<Node score="-0.30249754">
											<SimplePredicate field="avg_glucose_level" operator="greaterOrEqual" value="79.57783"/>
										</Node>
									</Node>
									<Node score="-0.18938316">
										<SimplePredicate field="avg_glucose_level" operator="greaterOrEqual" value="80.5265"/>
										<Node score="0.18827014">
											<SimplePredicate field="age" operator="greaterOrEqual" value="31.32521"/>
										</Node>
									</Node>
								</Node>
							</TreeModel>
						</Segment>
						<Segment id="11">
							<True/>
							<TreeModel functionName="regression" noTrueChildStrategy="returnLastPrediction" x-mathContext="float">
								<MiningSchema>
									<MiningField name="gender"/>
									<MiningField name="age"/>
									<MiningField name="hypertension"/>
									<MiningField name="ever_married"/>
									<MiningField name="avg_glucose_level"/>
									<MiningField name="bmi"/>
								</MiningSchema>
								<Node score="-0.28611434">
									<True/>
									<Node score="0.0813303">
										<SimplePredicate field="age" operator="greaterOrEqual" value="38.039516"/>
										<Node score="0.029083196">
											<SimplePredicate field="ever_married" operator="greaterOrEqual" value="0.5"/>
											<Node score="0.11572627">
												<SimplePredicate field="avg_glucose_level" operator="greaterOrEqual" value="159.54935"/>
												<Node score="-0.035316654">
													<SimplePredicate field="gender" operator="greaterOrEqual" value="0.5"/>
													<Node score="-0.016410958">
														<SimplePredicate field="avg_glucose_level" operator="greaterOrEqual" value="239.64127"/>
														<Node score="0.30328643">
															<SimplePredicate field="age" operator="greaterOrEqual" value="67.5"/>
														</Node>
													</Node>
													<Node score="-0.29279414">
														<SimplePredicate field="avg_glucose_level" operator="greaterOrEqual" value="222.12021"/>
													</Node>
												</Node>
												<Node score="0.2779667">
													<SimplePredicate field="bmi" operator="greaterOrEqual" value="26.404709"/>
													<Node score="0.09230009">
														<SimplePredicate field="bmi" operator="greaterOrEqual" value="28.892288"/>
													</Node>
												</Node>
												<Node score="-0.40527">
													<SimplePredicate field="avg_glucose_level" operator="greaterOrEqual" value="199.81097"/>
												</Node>
											</Node>
											<Node score="-0.13646623">
												<SimplePredicate field="avg_glucose_level" operator="greaterOrEqual" value="76.441216"/>
												<Node score="-0.08074528">
													<SimplePredicate field="hypertension" operator="greaterOrEqual" value="0.5"/>
													<Node score="-0.33061242">
														<SimplePredicate field="age" operator="greaterOrEqual" value="58.89734"/>
													</Node>
												</Node>
												<Node score="-0.024942819">
													<SimplePredicate field="avg_glucose_level" operator="greaterOrEqual" value="85.35028"/>
												</Node>
											</Node>
											<Node score="0.2312106">
												<SimplePredicate field="avg_glucose_level" operator="greaterOrEqual" value="72.64406"/>
												<Node score="-0.2616748">
													<SimplePredicate field="bmi" operator="greaterOrEqual" value="30.976463"/>
												</Node>
											</Node>
											<Node score="-0.15673211">
												<SimplePredicate field="gender" operator="greaterOrEqual" value="0.5"/>
											</Node>
										</Node>
										<Node score="-0.6038563">
											<SimplePredicate field="avg_glucose_level" operator="greaterOrEqual" value="226.84378"/>
										</Node>
										<Node score="-0.42571336">
											<SimplePredicate field="bmi" operator="greaterOrEqual" value="41.782406"/>
											<Node score="0.17880353">
												<SimplePredicate field="age" operator="greaterOrEqual" value="74.29463"/>
											</Node>
										</Node>
										<Node score="-0.2414628">
											<SimplePredicate field="age" operator="greaterOrEqual" value="81.982895"/>
										</Node>
										<Node score="0.1958891">
											<SimplePredicate field="age" operator="greaterOrEqual" value="66.13205"/>
										</Node>
									</Node>
									<Node score="-0.30235907">
										<SimplePredicate field="avg_glucose_level" operator="greaterOrEqual" value="80.54649"/>
										<Node score="-0.036490973">
											<SimplePredicate field="age" operator="greaterOrEqual" value="37.5"/>
										</Node>
									</Node>
									<Node score="0.020799492">
										<SimplePredicate field="bmi" operator="greaterOrEqual" value="27.014679"/>
										<Node score="-0.2831352">
											<SimplePredicate field="bmi" operator="greaterOrEqual" value="35.091164"/>
										</Node>
										<Node score="-0.27899387">
											<SimplePredicate field="age" operator="greaterOrEqual" value="35.948288"/>
										</Node>
										<Node score="0.38560936">
											<SimplePredicate field="age" operator="greaterOrEqual" value="34.172768"/>
										</Node>
									</Node>
									<Node score="0.10540457">
										<SimplePredicate field="age" operator="greaterOrEqual" value="30.117731"/>
										<Node score="-0.19981359">
											<SimplePredicate field="ever_married" operator="greaterOrEqual" value="0.5"/>
										</Node>
									</Node>
								</Node>
							</TreeModel>
						</Segment>
						<Segment id="12">
							<True/>
							<TreeModel functionName="regression" noTrueChildStrategy="returnLastPrediction" x-mathContext="float">
								<MiningSchema>
									<MiningField name="gender"/>
									<MiningField name="age"/>
									<MiningField name="ever_married"/>
									<MiningField name="work_type"/>
									<MiningField name="avg_glucose_level"/>
									<MiningField name="bmi"/>
									<MiningField name="smoking_status"/>
								</MiningSchema>
								<Node score="-0.29959556">
									<True/>
									<Node score="0.3856669">
										<SimplePredicate field="age" operator="greaterOrEqual" value="56.002182"/>
										<Node score="-0.06948542">
											<SimplePredicate field="age" operator="greaterOrEqual" value="56.99135"/>
											<Node score="-0.20126739">
												<SimplePredicate field="bmi" operator="greaterOrEqual" value="38.899216"/>
												<Node score="-0.26150483">
													<SimplePredicate field="avg_glucose_level" operator="greaterOrEqual" value="205.29001"/>
													<Node score="0.19251955">
														<SimplePredicate field="smoking_status" operator="greaterOrEqual" value="1.5"/>
														<Node score="-0.35234267">
															<SimplePredicate field="age" operator="greaterOrEqual" value="58.98029"/>
														</Node>
													</Node>
													<Node score="0.19701645">
														<SimplePredicate field="age" operator="greaterOrEqual" value="60.20586"/>
													</Node>
												</Node>
												<Node score="-0.10234046">
													<SimplePredicate field="age" operator="greaterOrEqual" value="76.23425"/>
													<Node score="0.25248408">
														<SimplePredicate field="bmi" operator="greaterOrEqual" value="41.613297"/>
													</Node>
												</Node>
												<Node score="-0.528157">
													<SimplePredicate field="age" operator="greaterOrEqual" value="59.733025"/>
												</Node>
											</Node>
											<Node score="0.3839247">
												<SimplePredicate field="age" operator="greaterOrEqual" value="57.00094"/>
												<Node score="-0.49739233">
													<SimplePredicate field="age" operator="greaterOrEqual" value="57.991585"/>
													<Node score="0.036003895">
														<SimplePredicate field="age" operator="greaterOrEqual" value="58.011337"/>
													</Node>
												</Node>
											</Node>
											<Node score="-1.1217421E-4">
												<SimplePredicate field="ever_married" operator="greaterOrEqual" value="0.5"/>
												<Node score="-0.41361207">
													<SimplePredicate field="smoking_status" operator="greaterOrEqual" value="0.5"/>
												</Node>
											</Node>
											<Node score="0.29623818">
												<SimplePredicate field="bmi" operator="greaterOrEqual" value="29.61245"/>
											</Node>
										</Node>
									</Node>
									<Node score="0.06788747">
										<SimplePredicate field="gender" operator="greaterOrEqual" value="0.5"/>
										<Node score="0.36059865">
											<SimplePredicate field="age" operator="greaterOrEqual" value="52.037605"/>
											<Node score="-0.2706626">
												<SimplePredicate field="age" operator="greaterOrEqual" value="52.99306"/>
												<Node score="-0.29873368">
													<SimplePredicate field="avg_glucose_level" operator="greaterOrEqual" value="72.005005"/>
													<Node score="-0.09563651">
														<SimplePredicate field="bmi" operator="greaterOrEqual" value="31.05"/>
													</Node>
												</Node>
												<Node score="0.3963605">
													<SimplePredicate field="avg_glucose_level" operator="greaterOrEqual" value="69.70954"/>
												</Node>
											</Node>
										</Node>
										<Node score="0.197082">
											<SimplePredicate field="bmi" operator="greaterOrEqual" value="40.521698"/>
											<Node score="-0.2357486">
												<SimplePredicate field="avg_glucose_level" operator="greaterOrEqual" value="146.11713"/>
											</Node>
											<Node score="-0.18236418">
												<SimplePredicate field="smoking_status" operator="greaterOrEqual" value="1.5"/>
											</Node>
										</Node>
										<Node score="-0.15337369">
											<SimplePredicate field="work_type" operator="greaterOrEqual" value="1.5"/>
											<Node score="-0.29660127">
												<SimplePredicate field="avg_glucose_level" operator="greaterOrEqual" value="67.373825"/>
											</Node>
										</Node>
										<Node score="-0.28024757">
											<SimplePredicate field="ever_married" operator="greaterOrEqual" value="0.5"/>
										</Node>
									</Node>
									<Node score="0.07839599">
										<SimplePredicate field="bmi" operator="greaterOrEqual" value="25.548306"/>
										<Node score="-0.40397432">
											<SimplePredicate field="age" operator="greaterOrEqual" value="55.9998"/>
										</Node>
										<Node score="0.15226541">
											<SimplePredicate field="bmi" operator="greaterOrEqual" value="31.99205"/>
											<Node score="-0.16118784">
												<SimplePredicate field="avg_glucose_level" operator="greaterOrEqual" value="66.85597"/>
											</Node>
										</Node>
										<Node score="-0.48296264">
											<SimplePredicate field="avg_glucose_level" operator="greaterOrEqual" value="186.53336"/>
										</Node>
									</Node>
									<Node score="-0.30825108">
										<SimplePredicate field="avg_glucose_level" operator="greaterOrEqual" value="83.23378"/>
									</Node>
									<Node score="-0.21281436">
										<SimplePredicate field="avg_glucose_level" operator="greaterOrEqual" value="73.31945"/>
										<Node score="0.19320957">
											<SimplePredicate field="age" operator="greaterOrEqual" value="31.32521"/>
										</Node>
									</Node>
								</Node>
							</TreeModel>
						</Segment>
						<Segment id="13">
							<True/>
							<TreeModel functionName="regression" noTrueChildStrategy="returnLastPrediction" x-mathContext="float">
								<MiningSchema>
									<MiningField name="age"/>
									<MiningField name="work_type"/>
									<MiningField name="Residence_type"/>
									<MiningField name="avg_glucose_level"/>
									<MiningField name="bmi"/>
									<MiningField name="smoking_status"/>
								</MiningSchema>
								<Node score="-0.3048693">
									<True/>
									<Node score="-0.16380656">
										<SimplePredicate field="age" operator="greaterOrEqual" value="43.01555"/>
										<Node score="0.36415288">
											<SimplePredicate field="work_type" operator="greaterOrEqual" value="0.5"/>
											<Node score="0.40754938">
												<SimplePredicate field="work_type" operator="greaterOrEqual" value="1.5"/>
												<Node score="-0.19771312">
													<SimplePredicate field="age" operator="greaterOrEqual" value="43.99893"/>
													<Node score="0.077336624">
														<SimplePredicate field="age" operator="greaterOrEqual" value="73.019905"/>
														<Node score="-0.16460072">
															<SimplePredicate field="age" operator="greaterOrEqual" value="80.99635"/>
														</Node>
													</Node>
													<Node score="-0.013954454">
														<SimplePredicate field="bmi" operator="greaterOrEqual" value="25.11819"/>
													</Node>
												</Node>
											</Node>
										</Node>
										<Node score="-0.10690073">
											<SimplePredicate field="bmi" operator="greaterOrEqual" value="33.099625"/>
											<Node score="-0.23345907">
												<SimplePredicate field="avg_glucose_level" operator="greaterOrEqual" value="65.76595"/>
												<Node score="0.20721525">
													<SimplePredicate field="avg_glucose_level" operator="greaterOrEqual" value="257.1669"/>
												</Node>
												<Node score="-0.49003607">
													<SimplePredicate field="age" operator="greaterOrEqual" value="63.90822"/>
												</Node>
											</Node>
											<Node score="0.33710876">
												<SimplePredicate field="avg_glucose_level" operator="greaterOrEqual" value="62.709488"/>
											</Node>
										</Node>
										<Node score="0.076282315">
											<SimplePredicate field="avg_glucose_level" operator="greaterOrEqual" value="161.54999"/>
											<Node score="-0.4417928">
												<SimplePredicate field="avg_glucose_level" operator="greaterOrEqual" value="222.03445"/>
											</Node>
											<Node score="0.27906814">
												<SimplePredicate field="avg_glucose_level" operator="greaterOrEqual" value="211.49222"/>
											</Node>
										</Node>
										<Node score="-0.103496805">
											<SimplePredicate field="smoking_status" operator="greaterOrEqual" value="1.5"/>
											<Node score="-0.3814873">
												<SimplePredicate field="avg_glucose_level" operator="greaterOrEqual" value="88.29362"/>
											</Node>
										</Node>
										<Node score="0.06758984">
											<SimplePredicate field="bmi" operator="greaterOrEqual" value="27.025341"/>
										</Node>
									</Node>
									<Node score="-0.28504634">
										<SimplePredicate field="avg_glucose_level" operator="greaterOrEqual" value="83.49942"/>
										<Node score="-0.24515018">
											<SimplePredicate field="age" operator="greaterOrEqual" value="37.5"/>
											<Node score="-0.2783567">
												<SimplePredicate field="bmi" operator="greaterOrEqual" value="30.167942"/>
											</Node>
											<Node score="0.23076692">
												<SimplePredicate field="bmi" operator="greaterOrEqual" value="28.746618"/>
												<Node score="-0.10897883">
													<SimplePredicate field="Residence_type" operator="greaterOrEqual" value="0.5"/>
												</Node>
											</Node>
										</Node>
									</Node>
									<Node score="-0.018729076">
										<SimplePredicate field="avg_glucose_level" operator="greaterOrEqual" value="82.73807"/>
										<Node score="0.2637136">
											<SimplePredicate field="age" operator="greaterOrEqual" value="39.010345"/>
										</Node>
									</Node>
									<Node score="0.29362082">
										<SimplePredicate field="bmi" operator="greaterOrEqual" value="27.312334"/>
										<Node score="-0.02343134">
											<SimplePredicate field="age" operator="greaterOrEqual" value="14.970892"/>
											<Node score="-0.23612061">
												<SimplePredicate field="Residence_type" operator="greaterOrEqual" value="0.5"/>
											</Node>
										</Node>
										<Node score="-0.13580137">
											<SimplePredicate field="avg_glucose_level" operator="greaterOrEqual" value="74.03949"/>
										</Node>
									</Node>
									<Node score="-0.11335412">
										<SimplePredicate field="avg_glucose_level" operator="greaterOrEqual" value="80.5265"/>
										<Node score="0.14620212">
											<SimplePredicate field="Residence_type" operator="greaterOrEqual" value="0.5"/>
										</Node>
									</Node>
									<Node score="-0.14922234">
										<SimplePredicate field="work_type" operator="greaterOrEqual" value="2.5"/>
									</Node>
								</Node>
							</TreeModel>
						</Segment>
						<Segment id="14">
							<True/>
							<TreeModel functionName="regression" noTrueChildStrategy="returnLastPrediction" x-mathContext="float">
								<MiningSchema>
									<MiningField name="gender"/>
									<MiningField name="age"/>
									<MiningField name="hypertension"/>
									<MiningField name="work_type"/>
									<MiningField name="Residence_type"/>
									<MiningField name="avg_glucose_level"/>
									<MiningField name="bmi"/>
									<MiningField name="smoking_status"/>
								</MiningSchema>
								<Node score="-0.21134692">
									<True/>
									<Node score="-0.008922536">
										<SimplePredicate field="Residence_type" operator="greaterOrEqual" value="0.5"/>
										<Node score="-0.1286381">
											<SimplePredicate field="age" operator="greaterOrEqual" value="47.00995"/>
											<Node score="-0.552297">
												<SimplePredicate field="avg_glucose_level" operator="greaterOrEqual" value="230.96303"/>
												<Node score="0.20944174">
													<SimplePredicate field="age" operator="greaterOrEqual" value="79.16168"/>
													<Node score="-0.15787044">
														<SimplePredicate field="age" operator="greaterOrEqual" value="80.76492"/>
													</Node>
												</Node>
												<Node score="0.09956071">
													<SimplePredicate field="bmi" operator="greaterOrEqual" value="36.457443"/>
												</Node>
												<Node score="-0.14894173">
													<SimplePredicate field="age" operator="greaterOrEqual" value="77.065956"/>
												</Node>
											</Node>
											<Node score="-0.27115002">
												<SimplePredicate field="avg_glucose_level" operator="greaterOrEqual" value="208.86963"/>
												<Node score="0.2541923">
													<SimplePredicate field="age" operator="greaterOrEqual" value="54.5"/>
													<Node score="0.04583608">
														<SimplePredicate field="age" operator="greaterOrEqual" value="61.954018"/>
													</Node>
												</Node>
											</Node>
											<Node score="-0.17286715">
												<SimplePredicate field="avg_glucose_level" operator="greaterOrEqual" value="74.115005"/>
												<Node score="-0.042069547">
													<SimplePredicate field="bmi" operator="greaterOrEqual" value="27.016191"/>
												</Node>
											</Node>
											<Node score="0.14349106">
												<SimplePredicate field="avg_glucose_level" operator="greaterOrEqual" value="67.275"/>
											</Node>
										</Node>
										<Node score="-0.22939105">
											<SimplePredicate field="avg_glucose_level" operator="greaterOrEqual" value="78.145004"/>
											<Node score="-0.2790776">
												<SimplePredicate field="avg_glucose_level" operator="greaterOrEqual" value="86.95"/>
												<Node score="-0.031779535">
													<SimplePredicate field="bmi" operator="greaterOrEqual" value="40.85"/>
												</Node>
											</Node>
											<Node score="-0.014319966">
												<SimplePredicate field="age" operator="greaterOrEqual" value="37.5"/>
												<Node score="0.2623385">
													<SimplePredicate field="work_type" operator="greaterOrEqual" value="1.5"/>
												</Node>
											</Node>
											<Node score="-0.040089205">
												<SimplePredicate field="age" operator="greaterOrEqual" value="32.32521"/>
											</Node>
										</Node>
										<Node score="-0.096914716">
											<SimplePredicate field="age" operator="greaterOrEqual" value="10.8575115"/>
											<Node score="-0.32359326">
												<SimplePredicate field="age" operator="greaterOrEqual" value="14.970892"/>
											</Node>
										</Node>
										<Node score="0.06864831">
											<SimplePredicate field="avg_glucose_level" operator="greaterOrEqual" value="70.53816"/>
										</Node>
									</Node>
									<Node score="-0.35599768">
										<SimplePredicate field="bmi" operator="greaterOrEqual" value="22.205584"/>
										<Node score="-0.3534593">
											<SimplePredicate field="smoking_status" operator="greaterOrEqual" value="2.5"/>
											<Node score="0.18457419">
												<SimplePredicate field="avg_glucose_level" operator="greaterOrEqual" value="96.875"/>
												<Node score="-0.2692106">
													<SimplePredicate field="avg_glucose_level" operator="greaterOrEqual" value="120.865"/>
													<Node score="0.23145773">
														<SimplePredicate field="avg_glucose_level" operator="greaterOrEqual" value="251.47302"/>
													</Node>
												</Node>
												<Node score="-0.25513548">
													<SimplePredicate field="age" operator="greaterOrEqual" value="62.5"/>
												</Node>
											</Node>
											<Node score="0.040484738">
												<SimplePredicate field="hypertension" operator="greaterOrEqual" value="0.5"/>
											</Node>
											<Node score="-0.12320321">
												<SimplePredicate field="gender" operator="greaterOrEqual" value="0.5"/>
											</Node>
										</Node>
										<Node score="0.24633172">
											<SimplePredicate field="avg_glucose_level" operator="greaterOrEqual" value="57.58563"/>
											<Node score="-0.090954825">
												<SimplePredicate field="avg_glucose_level" operator="greaterOrEqual" value="62.09173"/>
												<Node score="0.05637038">
													<SimplePredicate field="avg_glucose_level" operator="greaterOrEqual" value="72.64906"/>
												</Node>
											</Node>
											<Node score="-0.15684207">
												<SimplePredicate field="gender" operator="greaterOrEqual" value="0.5"/>
											</Node>
										</Node>
										<Node score="0.07909842">
											<SimplePredicate field="age" operator="greaterOrEqual" value="76.13657"/>
										</Node>
									</Node>
									<Node score="-0.2724581">
										<SimplePredicate field="avg_glucose_level" operator="greaterOrEqual" value="82.13"/>
										<Node score="-0.5451221">
											<SimplePredicate field="age" operator="greaterOrEqual" value="61.465385"/>
											<Node score="7.271974E-4">
												<SimplePredicate field="age" operator="greaterOrEqual" value="78.0284"/>
												<Node score="-0.38606837">
													<SimplePredicate field="age" operator="greaterOrEqual" value="80.85658"/>
												</Node>
											</Node>
										</Node>
										<Node score="-0.052060056">
											<SimplePredicate field="avg_glucose_level" operator="greaterOrEqual" value="116.065"/>
										</Node>
									</Node>
									<Node score="0.008531002">
										<SimplePredicate field="age" operator="greaterOrEqual" value="79.157974"/>
										<Node score="0.31137896">
											<SimplePredicate field="avg_glucose_level" operator="greaterOrEqual" value="66.908646"/>
										</Node>
									</Node>
									<Node score="-0.37276566">
										<SimplePredicate field="smoking_status" operator="greaterOrEqual" value="1.5"/>
									</Node>
									<Node score="0.22924434">
										<SimplePredicate field="smoking_status" operator="greaterOrEqual" value="0.5"/>
									</Node>
								</Node>
							</TreeModel>
						</Segment>
						<Segment id="15">
							<True/>
							<TreeModel functionName="regression" noTrueChildStrategy="returnLastPrediction" x-mathContext="float">
								<MiningSchema>
									<MiningField name="gender"/>
									<MiningField name="age"/>
									<MiningField name="hypertension"/>
									<MiningField name="heart_disease"/>
									<MiningField name="work_type"/>
									<MiningField name="Residence_type"/>
									<MiningField name="avg_glucose_level"/>
									<MiningField name="bmi"/>
									<MiningField name="smoking_status"/>
								</MiningSchema>
								<Node score="-0.36766997">
									<True/>
									<Node score="0.025056701">
										<SimplePredicate field="bmi" operator="greaterOrEqual" value="20.40775"/>
										<Node score="0.003938999">
											<SimplePredicate field="avg_glucose_level" operator="greaterOrEqual" value="57.905"/>
											<Node score="-0.32570732">
												<SimplePredicate field="smoking_status" operator="greaterOrEqual" value="2.5"/>
												<Node score="-0.061183345">
													<SimplePredicate field="avg_glucose_level" operator="greaterOrEqual" value="76.104996"/>
													<Node score="-0.20499541">
														<SimplePredicate field="avg_glucose_level" operator="greaterOrEqual" value="79.78379"/>
														<Node score="-0.02172563">
															<SimplePredicate field="avg_glucose_level" operator="greaterOrEqual" value="96.89"/>
														</Node>
													</Node>
													<Node score="0.29832906">
														<SimplePredicate field="age" operator="greaterOrEqual" value="54.61367"/>
													</Node>
												</Node>
												<Node score="0.07041332">
													<SimplePredicate field="hypertension" operator="greaterOrEqual" value="0.5"/>
												</Node>
												<Node score="0.013578731">
													<SimplePredicate field="age" operator="greaterOrEqual" value="79.5"/>
												</Node>
											</Node>
											<Node score="0.10818213">
												<SimplePredicate field="heart_disease" operator="greaterOrEqual" value="0.5"/>
												<Node score="-0.38379732">
													<SimplePredicate field="avg_glucose_level" operator="greaterOrEqual" value="207.75372"/>
													<Node score="0.1219163">
														<SimplePredicate field="bmi" operator="greaterOrEqual" value="27.55"/>
													</Node>
												</Node>
												<Node score="-0.23921894">
													<SimplePredicate field="avg_glucose_level" operator="greaterOrEqual" value="70.149994"/>
												</Node>
											</Node>
											<Node score="0.34023464">
												<SimplePredicate field="work_type" operator="greaterOrEqual" value="0.5"/>
												<Node score="0.016251292">
													<SimplePredicate field="work_type" operator="greaterOrEqual" value="1.5"/>
												</Node>
											</Node>
											<Node score="-0.19683628">
												<SimplePredicate field="gender" operator="greaterOrEqual" value="0.5"/>
											</Node>
										</Node>
										<Node score="-0.33919564">
											<SimplePredicate field="bmi" operator="greaterOrEqual" value="26.527964"/>
										</Node>
										<Node score="-0.2201762">
											<SimplePredicate field="Residence_type" operator="greaterOrEqual" value="0.5"/>
										</Node>
									</Node>
									<Node score="0.19889788">
										<SimplePredicate field="age" operator="greaterOrEqual" value="80.26518"/>
										<Node score="-0.13964151">
											<SimplePredicate field="bmi" operator="greaterOrEqual" value="19.41234"/>
										</Node>
										<Node score="0.04548575">
											<SimplePredicate field="avg_glucose_level" operator="greaterOrEqual" value="81.516846"/>
										</Node>
									</Node>
									<Node score="-0.05975839">
										<SimplePredicate field="bmi" operator="greaterOrEqual" value="20.05"/>
									</Node>
									<Node score="-0.09381985">
										<SimplePredicate field="age" operator="greaterOrEqual" value="78.06456"/>
									</Node>
								</Node>
							</TreeModel>
						</Segment>
						<Segment id="16">
							<True/>
							<TreeModel functionName="regression" noTrueChildStrategy="returnLastPrediction" x-mathContext="float">
								<MiningSchema>
									<MiningField name="gender"/>
									<MiningField name="age"/>
									<MiningField name="hypertension"/>
									<MiningField name="work_type"/>
									<MiningField name="Residence_type"/>
									<MiningField name="avg_glucose_level"/>
									<MiningField name="bmi"/>
								</MiningSchema>
								<Node score="-0.28677887">
									<True/>
									<Node score="0.48990113">
										<SimplePredicate field="age" operator="greaterOrEqual" value="45.032936"/>
										<Node score="0.028996365">
											<SimplePredicate field="age" operator="greaterOrEqual" value="45.92865"/>
											<Node score="-0.03531262">
												<SimplePredicate field="work_type" operator="greaterOrEqual" value="2.5"/>
												<Node score="0.014722792">
													<SimplePredicate field="avg_glucose_level" operator="greaterOrEqual" value="206.355"/>
													<Node score="-0.10166598">
